<?xml version="1.0"?>
<opencv_storage>
<cascade>
  <stageType>BOOST</stageType>
  <featureType>HAAR</featureType>
  <height>24</height>
  <width>24</width>
  <stageParams>
    <boostType>GAB</boostType>
    <minHitRate>9.9500000476837158e-01</minHitRate>
    <maxFalseAlarm>5.0000000000000000e-01</maxFalseAlarm>
    <weightTrimRate>9.4999999999999996e-01</weightTrimRate>
    <maxDepth>1</maxDepth>
    <maxWeakCount>100</maxWeakCount></stageParams>
  <featureParams>
    <maxCatCount>0</maxCatCount>
    <featSize>1</featSize>
    <mode>BASIC</mode></featureParams>
  <stageNum>25</stageNum>
  <stages>
    <!-- stage 0 -->
    <_>
      <maxWeakCount>3</maxWeakCount>
      <stageThreshold>-8.3368718624114990e-01</stageThreshold>
      <weakClassifiers>
        <_>
          <internalNodes>
            0 -1 27 -6.1147060245275497e-02</internalNodes>
          <leafValues>
            -7.7499997615814209e-01 9.1250002384185791e-01</leafValues></_>
        <_>
          <internalNodes>
            0 -1 61 -8.2849115133285522e-03</internalNodes>
          <leafValues>
            8.3080726861953735e-01 -8.2099014520645142e-01</leafValues></_>
        <_>
          <internalNodes>
            0 -1 30 2.4092510342597961e-02</internalNodes>
          <leafValues>
            -9.2201077938079834e-01 7.6230293512344360e-01</leafValues></_></weakClassifiers></_>
    <!-- stage 1 -->
    <_>
      <maxWeakCount>3</maxWeakCount>
      <stageThreshold>-6.9379144906997681e-01</stageThreshold>
      <weakClassifiers>
        <_>
          <internalNodes>
            0 -1 62 -2.4198029190301895e-02</internalNodes>
          <leafValues>
            9.1194969415664673e-01 -7.6763486862182617e-01</leafValues></_>
        <_>
          <internalNodes>
            0 -1 18 -7.4203331023454666e-03</internalNodes>
          <leafValues>
            8.5889297723770142e-01 -7.2256791591644287e-01</leafValues></_>
        <_>
          <internalNodes>
            0 -1 59 -8.2490332424640656e-03</internalNodes>
          <leafValues>
            7.9641133546829224e-01 -7.5823080539703369e-01</leafValues></_></weakClassifiers></_>
    <!-- stage 2 -->
    <_>
      <maxWeakCount>3</maxWeakCount>
      <stageThreshold>-7.3656260967254639e-01</stageThreshold>
      <weakClassifiers>
        <_>
          <internalNodes>
            0 -1 29 -2.7471429109573364e-01</internalNodes>
          <leafValues>
            -7.2111552953720093e-01 9.4630873203277588e-01</leafValues></_>
        <_>
          <internalNodes>
            0 -1 5 -4.2762517929077148e-02</internalNodes>
          <leafValues>
            6.5074443817138672e-01 -8.2246536016464233e-01</leafValues></_>
        <_>
          <internalNodes>
            0 -1 91 -1.8695186823606491e-02</internalNodes>
          <leafValues>
            8.5873436927795410e-01 -6.6619151830673218e-01</leafValues></_></weakClassifiers></_>
    <!-- stage 3 -->
    <_>
      <maxWeakCount>2</maxWeakCount>
      <stageThreshold>-2.1470831334590912e-01</stageThreshold>
      <weakClassifiers>
        <_>
          <internalNodes>
            0 -1 28 -2.6478266716003418e-01</internalNodes>
          <leafValues>
            -7.3333334922790527e-01 8.5000002384185791e-01</leafValues></_>
        <_>
          <internalNodes>
            0 -1 72 2.7927588671445847e-02</internalNodes>
          <leafValues>
            -8.9889234304428101e-01 5.1862502098083496e-01</leafValues></_></weakClassifiers></_>
    <!-- stage 4 -->
    <_>
      <maxWeakCount>5</maxWeakCount>
      <stageThreshold>-9.4997054338455200e-01</stageThreshold>
      <weakClassifiers>
        <_>
          <internalNodes>
            0 -1 12 -6.1566539108753204e-02</internalNodes>
          <leafValues>
            9.0209788084030151e-01 -6.5758752822875977e-01</leafValues></_>
        <_>
          <internalNodes>
            0 -1 67 -1.5184274874627590e-02</internalNodes>
          <leafValues>
            7.2067910432815552e-01 -6.9294607639312744e-01</leafValues></_>
        <_>
          <internalNodes>
            0 -1 40 9.0823005884885788e-03</internalNodes>
          <leafValues>
            -7.6537936925888062e-01 5.4169005155563354e-01</leafValues></_>
        <_>
          <internalNodes>
            0 -1 74 1.5445345779880881e-03</internalNodes>
          <leafValues>
            -6.8966031074523926e-01 5.2748250961303711e-01</leafValues></_>
        <_>
          <internalNodes>
            0 -1 47 8.6035812273621559e-04</internalNodes>
          <leafValues>
            -6.4889425039291382e-01 6.3845992088317871e-01</leafValues></_></weakClassifiers></_>
    <!-- stage 5 -->
    <_>
      <maxWeakCount>4</maxWeakCount>
      <stageThreshold>-1.2494592666625977e+00</stageThreshold>
      <weakClassifiers>
        <_>
          <internalNodes>
            0 -1 8 -7.3708556592464447e-02</internalNodes>
          <leafValues>
            9.1489362716674805e-01 -6.5250962972640991e-01</leafValues></_>
        <_>
          <internalNodes>
            0 -1 96 -5.1377592608332634e-03</internalNodes>
          <leafValues>
            -8.2683795690536499e-01 4.6404790878295898e-01</leafValues></_>
        <_>
          <internalNodes>
            0 -1 4 6.6085085272789001e-03</internalNodes>
          <leafValues>
            -6.6752642393112183e-01 5.2335065603256226e-01</leafValues></_>
        <_>
          <internalNodes>
            0 -1 13 4.2147919535636902e-02</internalNodes>
          <leafValues>
            -3.9347106218338013e-01 9.5950186252593994e-01</leafValues></_></weakClassifiers></_>
    <!-- stage 6 -->
    <_>
      <maxWeakCount>3</maxWeakCount>
      <stageThreshold>-8.2389456033706665e-01</stageThreshold>
      <weakClassifiers>
        <_>
          <internalNodes>
            0 -1 99 2.6875989511609077e-02</internalNodes>
          <leafValues>
            -6.5354329347610474e-01 8.6301368474960327e-01</leafValues></_>
        <_>
          <internalNodes>
            0 -1 11 2.2499458864331245e-02</internalNodes>
          <leafValues>
            -7.4564856290817261e-01 6.3404965400695801e-01</leafValues></_>
        <_>
          <internalNodes>
            0 -1 3 4.7716824337840080e-03</internalNodes>
          <leafValues>
            -6.4902323484420776e-01 5.7529735565185547e-01</leafValues></_></weakClassifiers></_>
    <!-- stage 7 -->
    <_>
      <maxWeakCount>4</maxWeakCount>
      <stageThreshold>-1.2475789785385132e+00</stageThreshold>
      <weakClassifiers>
        <_>
          <internalNodes>
            0 -1 85 6.1611898243427277e-02</internalNodes>
          <leafValues>
            -5.5956679582595825e-01 9.3495935201644897e-01</leafValues></_>
        <_>
          <internalNodes>
            0 -1 98 -1.9520802889019251e-03</internalNodes>
          <leafValues>
            -5.0733852386474609e-01 5.8256918191909790e-01</leafValues></_>
        <_>
          <internalNodes>
            0 -1 20 8.1767782568931580e-02</internalNodes>
          <leafValues>
            -7.5042313337326050e-01 4.4973546266555786e-01</leafValues></_>
        <_>
          <internalNodes>
            0 -1 2 1.6639360692352057e-03</internalNodes>
          <leafValues>
            -6.3040918111801147e-01 5.2073836326599121e-01</leafValues></_></weakClassifiers></_>
    <!-- stage 8 -->
    <_>
      <maxWeakCount>5</maxWeakCount>
      <stageThreshold>-1.1697838306427002e+00</stageThreshold>
      <weakClassifiers>
        <_>
          <internalNodes>
            0 -1 54 -2.6122983545064926e-02</internalNodes>
          <leafValues>
            7.7215188741683960e-01 -6.6942149400711060e-01</leafValues></_>
        <_>
          <internalNodes>
            0 -1 92 3.7530981004238129e-02</internalNodes>
          <leafValues>
            -4.2072540521621704e-01 8.3711111545562744e-01</leafValues></_>
        <_>
          <internalNodes>
            0 -1 90 -1.5687555074691772e-02</internalNodes>
          <leafValues>
            6.3472658395767212e-01 -5.0195777416229248e-01</leafValues></_>
        <_>
          <internalNodes>
            0 -1 26 -1.6109161078929901e-02</internalNodes>
          <leafValues>
            3.6264288425445557e-01 -9.0788787603378296e-01</leafValues></_>
        <_>
          <internalNodes>
            0 -1 70 1.3239582767710090e-03</internalNodes>
          <leafValues>
            1.9352440536022186e-01 -1.</leafValues></_></weakClassifiers></_>
    <!-- stage 9 -->
    <_>
      <maxWeakCount>5</maxWeakCount>
      <stageThreshold>-9.9753546714782715e-01</stageThreshold>
      <weakClassifiers>
        <_>
          <internalNodes>
            0 -1 8 -6.5025657415390015e-02</internalNodes>
          <leafValues>
            7.8481012582778931e-01 -6.7768597602844238e-01</leafValues></_>
        <_>
          <internalNodes>
            0 -1 89 -5.5500390008091927e-03</internalNodes>
          <leafValues>
            5.0803279876708984e-01 -6.9880461692810059e-01</leafValues></_>
        <_>
          <internalNodes>
            0 -1 14 -3.1765066087245941e-03</internalNodes>
          <leafValues>
            4.6529096364974976e-01 -7.0932662487030029e-01</leafValues></_>
        <_>
          <internalNodes>
            0 -1 46 3.5892520099878311e-02</internalNodes>
          <leafValues>
            -7.7622067928314209e-01 4.3652346730232239e-01</leafValues></_>
        <_>
          <internalNodes>
            0 -1 57 -2.3823216557502747e-02</internalNodes>
          <leafValues>
            6.8988478183746338e-01 -4.8437908291816711e-01</leafValues></_></weakClassifiers></_>
    <!-- stage 10 -->
    <_>
      <maxWeakCount>4</maxWeakCount>
      <stageThreshold>-8.5918217897415161e-01</stageThreshold>
      <weakClassifiers>
        <_>
          <internalNodes>
            0 -1 10 4.0743585675954819e-02</internalNodes>
          <leafValues>
            -7.0491802692413330e-01 8.4615385532379150e-01</leafValues></_>
        <_>
          <internalNodes>
            0 -1 49 -5.0066886469721794e-03</internalNodes>
          <leafValues>
            3.9793270826339722e-01 -7.6926404237747192e-01</leafValues></_>
        <_>
          <internalNodes>
            0 -1 88 -3.2940058736130595e-04</internalNodes>
          <leafValues>
            3.1213656067848206e-01 -8.2293730974197388e-01</leafValues></_>
        <_>
          <internalNodes>
            0 -1 69 7.4375281110405922e-04</internalNodes>
          <leafValues>
            3.0286332964897156e-01 -9.5529234409332275e-01</leafValues></_></weakClassifiers></_>
    <!-- stage 11 -->
    <_>
      <maxWeakCount>3</maxWeakCount>
      <stageThreshold>-5.2983725070953369e-01</stageThreshold>
      <weakClassifiers>
        <_>
          <internalNodes>
            0 -1 15 -9.1081246733665466e-02</internalNodes>
          <leafValues>
            9.8290598392486572e-01 -5.4770320653915405e-01</leafValues></_>
        <_>
          <internalNodes>
            0 -1 36 3.2188771292567253e-03</internalNodes>
          <leafValues>
            -7.1409440040588379e-01 4.2168673872947693e-01</leafValues></_>
        <_>
          <internalNodes>
            0 -1 75 1.1032557114958763e-02</internalNodes>
          <leafValues>
            -4.0382081270217896e-01 8.3570784330368042e-01</leafValues></_></weakClassifiers></_>
    <!-- stage 12 -->
    <_>
      <maxWeakCount>5</maxWeakCount>
      <stageThreshold>-1.4454190731048584e+00</stageThreshold>
      <weakClassifiers>
        <_>
          <internalNodes>
            0 -1 17 -2.8599161654710770e-02</internalNodes>
          <leafValues>
            6.6666668653488159e-01 -6.9026547670364380e-01</leafValues></_>
        <_>
          <internalNodes>
            0 -1 60 1.6179748345166445e-03</internalNodes>
          <leafValues>
            -7.3059463500976563e-01 3.8320490717887878e-01</leafValues></_>
        <_>
          <internalNodes>
            0 -1 50 -3.3242399804294109e-03</internalNodes>
          <leafValues>
            4.6055763959884644e-01 -6.5532058477401733e-01</leafValues></_>
        <_>
          <internalNodes>
            0 -1 38 -6.4788749441504478e-03</internalNodes>
          <leafValues>
            3.2227966189384460e-01 -9.3923628330230713e-01</leafValues></_>
        <_>
          <internalNodes>
            0 -1 64 -6.6370447166264057e-04</internalNodes>
          <leafValues>
            -8.0531758069992065e-01 2.8491607308387756e-01</leafValues></_></weakClassifiers></_>
    <!-- stage 13 -->
    <_>
      <maxWeakCount>5</maxWeakCount>
      <stageThreshold>-7.2963672876358032e-01</stageThreshold>
      <weakClassifiers>
        <_>
          <internalNodes>
            0 -1 7 -4.5198544859886169e-02</internalNodes>
          <leafValues>
            9.1596639156341553e-01 -5.3024911880493164e-01</leafValues></_>
        <_>
          <internalNodes>
            0 -1 81 -2.9385369271039963e-04</internalNodes>
          <leafValues>
            4.7620236873626709e-01 -6.8842971324920654e-01</leafValues></_>
        <_>
          <internalNodes>
            0 -1 24 -8.0189935863018036e-02</internalNodes>
          <leafValues>
            6.1202472448348999e-01 -4.9803680181503296e-01</leafValues></_>
        <_>
          <internalNodes>
            0 -1 22 1.0515559697523713e-03</internalNodes>
          <leafValues>
            -5.1367235183715820e-01 5.9453332424163818e-01</leafValues></_>
        <_>
          <internalNodes>
            0 -1 44 8.5325790569186211e-03</internalNodes>
          <leafValues>
            -7.7208650112152100e-01 4.1931039094924927e-01</leafValues></_></weakClassifiers></_>
    <!-- stage 14 -->
    <_>
      <maxWeakCount>6</maxWeakCount>
      <stageThreshold>-7.4754852056503296e-01</stageThreshold>
      <weakClassifiers>
        <_>
          <internalNodes>
            0 -1 84 5.7220831513404846e-02</internalNodes>
          <leafValues>
            -5.6133830547332764e-01 8.4732824563980103e-01</leafValues></_>
        <_>
          <internalNodes>
            0 -1 96 -1.8996165599673986e-03</internalNodes>
          <leafValues>
            -4.8668575286865234e-01 6.2112003564834595e-01</leafValues></_>
        <_>
          <internalNodes>
            0 -1 66 -1.0020535439252853e-02</internalNodes>
          <leafValues>
            5.7458865642547607e-01 -4.4869303703308105e-01</leafValues></_>
        <_>
          <internalNodes>
            0 -1 39 -1.1753872968256474e-03</internalNodes>
          <leafValues>
            4.7039574384689331e-01 -5.9839957952499390e-01</leafValues></_>
        <_>
          <internalNodes>
            0 -1 58 -2.3510712198913097e-03</internalNodes>
          <leafValues>
            6.5290015935897827e-01 -5.0004118680953979e-01</leafValues></_>
        <_>
          <internalNodes>
            0 -1 83 -5.7932253926992416e-02</internalNodes>
          <leafValues>
            8.9841836690902710e-01 -2.4446777999401093e-01</leafValues></_></weakClassifiers></_>
    <!-- stage 15 -->
    <_>
      <maxWeakCount>4</maxWeakCount>
      <stageThreshold>-6.2058991193771362e-01</stageThreshold>
      <weakClassifiers>
        <_>
          <internalNodes>
            0 -1 0 5.8878302574157715e-02</internalNodes>
          <leafValues>
            -5.2173912525177002e-01 8.3870965242385864e-01</leafValues></_>
        <_>
          <internalNodes>
            0 -1 53 3.5252099041827023e-04</internalNodes>
          <leafValues>
            3.1802520155906677e-01 -9.2566657066345215e-01</leafValues></_>
        <_>
          <internalNodes>
            0 -1 51 7.0401905104517937e-03</internalNodes>
          <leafValues>
            -4.8594900965690613e-01 5.1908630132675171e-01</leafValues></_>
        <_>
          <internalNodes>
            0 -1 53 -4.2214288259856403e-04</internalNodes>
          <leafValues>
            -9.2794275283813477e-01 3.0772951245307922e-01</leafValues></_></weakClassifiers></_>
    <!-- stage 16 -->
    <_>
      <maxWeakCount>4</maxWeakCount>
      <stageThreshold>-5.4359608888626099e-01</stageThreshold>
      <weakClassifiers>
        <_>
          <internalNodes>
            0 -1 97 6.0330361127853394e-02</internalNodes>
          <leafValues>
            -5.1624548435211182e-01 8.3739835023880005e-01</leafValues></_>
        <_>
          <internalNodes>
            0 -1 87 9.4995237304829061e-05</internalNodes>
          <leafValues>
            -8.2051324844360352e-01 3.4213531017303467e-01</leafValues></_>
        <_>
          <internalNodes>
            0 -1 42 1.9235047511756420e-03</internalNodes>
          <leafValues>
            -5.5371278524398804e-01 5.0223475694656372e-01</leafValues></_>
        <_>
          <internalNodes>
            0 -1 55 -1.2650365009903908e-02</internalNodes>
          <leafValues>
            3.5231345891952515e-01 -8.7172061204910278e-01</leafValues></_></weakClassifiers></_>
    <!-- stage 17 -->
    <_>
      <maxWeakCount>6</maxWeakCount>
      <stageThreshold>-5.2893042564392090e-01</stageThreshold>
      <weakClassifiers>
        <_>
          <internalNodes>
            0 -1 82 7.7397160232067108e-02</internalNodes>
          <leafValues>
            -5.6589144468307495e-01 7.4647885560989380e-01</leafValues></_>
        <_>
          <internalNodes>
            0 -1 41 -3.0886682216078043e-03</internalNodes>
          <leafValues>
            6.1979144811630249e-01 -4.1231682896614075e-01</leafValues></_>
        <_>
          <internalNodes>
            0 -1 9 3.7727346643805504e-03</internalNodes>
          <leafValues>
            -6.4358282089233398e-01 3.9844515919685364e-01</leafValues></_>
        <_>
          <internalNodes>
            0 -1 23 2.9621442081406713e-04</internalNodes>
          <leafValues>
            3.5132759809494019e-01 -7.2282761335372925e-01</leafValues></_>
        <_>
          <internalNodes>
            0 -1 21 1.0712028015404940e-03</internalNodes>
          <leafValues>
            -6.2854176759719849e-01 3.9275088906288147e-01</leafValues></_>
        <_>
          <internalNodes>
            0 -1 48 1.4221155084669590e-02</internalNodes>
          <leafValues>
            3.9316144585609436e-01 -6.5119880437850952e-01</leafValues></_></weakClassifiers></_>
    <!-- stage 18 -->
    <_>
      <maxWeakCount>5</maxWeakCount>
      <stageThreshold>-8.0827611684799194e-01</stageThreshold>
      <weakClassifiers>
        <_>
          <internalNodes>
            0 -1 19 -3.4832686185836792e-02</internalNodes>
          <leafValues>
            6.9032257795333862e-01 -6.0000002384185791e-01</leafValues></_>
        <_>
          <internalNodes>
            0 -1 6 1.2038990855216980e-02</internalNodes>
          <leafValues>
            -3.9246305823326111e-01 6.6590529680252075e-01</leafValues></_>
        <_>
          <internalNodes>
            0 -1 43 5.6506716646254063e-03</internalNodes>
          <leafValues>
            3.0048337578773499e-01 -9.4765859842300415e-01</leafValues></_>
        <_>
          <internalNodes>
            0 -1 31 4.1671015787869692e-04</internalNodes>
          <leafValues>
            -9.1695386171340942e-01 3.0042847990989685e-01</leafValues></_>
        <_>
          <internalNodes>
            0 -1 79 -1.1375347152352333e-02</internalNodes>
          <leafValues>
            7.2482383251190186e-01 -4.1672495007514954e-01</leafValues></_></weakClassifiers></_>
    <!-- stage 19 -->
    <_>
      <maxWeakCount>5</maxWeakCount>
      <stageThreshold>-1.2407164573669434e+00</stageThreshold>
      <weakClassifiers>
        <_>
          <internalNodes>
            0 -1 1 -2.0876894704997540e-03</internalNodes>
          <leafValues>
            -4.7368422150611877e-01 8.2608693838119507e-01</leafValues></_>
        <_>
          <internalNodes>
            0 -1 37 6.4335521310567856e-03</internalNodes>
          <leafValues>
            3.9114293456077576e-01 -8.5439085960388184e-01</leafValues></_>
        <_>
          <internalNodes>
            0 -1 68 1.4061995316296816e-03</internalNodes>
          <leafValues>
            -6.9427108764648438e-01 3.5733598470687866e-01</leafValues></_>
        <_>
          <internalNodes>
            0 -1 89 -4.8462986014783382e-03</internalNodes>
          <leafValues>
            3.7246623635292053e-01 -6.9239526987075806e-01</leafValues></_>
        <_>
          <internalNodes>
            0 -1 52 -2.7142895851284266e-04</internalNodes>
          <leafValues>
            -9.3925333023071289e-01 2.2849112749099731e-01</leafValues></_></weakClassifiers></_>
    <!-- stage 20 -->
    <_>
      <maxWeakCount>6</maxWeakCount>
      <stageThreshold>-6.9868522882461548e-01</stageThreshold>
      <weakClassifiers>
        <_>
          <internalNodes>
            0 -1 16 -4.7692667692899704e-02</internalNodes>
          <leafValues>
            7.5362318754196167e-01 -5.4961830377578735e-01</leafValues></_>
        <_>
          <internalNodes>
            0 -1 80 6.9426698610186577e-04</internalNodes>
          <leafValues>
            -5.3577792644500732e-01 4.8651441931724548e-01</leafValues></_>
        <_>
          <internalNodes>
            0 -1 93 -2.3786970414221287e-03</internalNodes>
          <leafValues>
            -3.9125028252601624e-01 7.2411620616912842e-01</leafValues></_>
        <_>
          <internalNodes>
            0 -1 63 -1.6765620559453964e-02</internalNodes>
          <leafValues>
            9.8154395818710327e-01 -2.9337364435195923e-01</leafValues></_>
        <_>
          <internalNodes>
            0 -1 35 1.2214719317853451e-03</internalNodes>
          <leafValues>
            -2.8163024783134460e-01 7.7882820367813110e-01</leafValues></_>
        <_>
          <internalNodes>
            0 -1 77 -4.0122179780155420e-04</internalNodes>
          <leafValues>
            3.8380712270736694e-01 -7.2978562116622925e-01</leafValues></_></weakClassifiers></_>
    <!-- stage 21 -->
    <_>
      <maxWeakCount>6</maxWeakCount>
      <stageThreshold>-8.5919833183288574e-01</stageThreshold>
      <weakClassifiers>
        <_>
          <internalNodes>
            0 -1 86 3.4042309969663620e-02</internalNodes>
          <leafValues>
            -4.7703179717063904e-01 8.1196582317352295e-01</leafValues></_>
        <_>
          <internalNodes>
            0 -1 65 -1.2556927977129817e-03</internalNodes>
          <leafValues>
            5.1777869462966919e-01 -5.9998762607574463e-01</leafValues></_>
        <_>
          <internalNodes>
            0 -1 45 5.9173049521632493e-05</internalNodes>
          <leafValues>
            -6.6349571943283081e-01 4.0164992213249207e-01</leafValues></_>
        <_>
          <internalNodes>
            0 -1 78 -8.5990224033594131e-04</internalNodes>
          <leafValues>
            -7.5767558813095093e-01 3.4936931729316711e-01</leafValues></_>
        <_>
          <internalNodes>
            0 -1 71 1.5436962712556124e-03</internalNodes>
          <leafValues>
            2.7886605262756348e-01 -9.0722668170928955e-01</leafValues></_>
        <_>
          <internalNodes>
            0 -1 33 -3.0875711672706529e-05</internalNodes>
          <leafValues>
            3.2140785455703735e-01 -7.4252486228942871e-01</leafValues></_></weakClassifiers></_>
    <!-- stage 22 -->
    <_>
      <maxWeakCount>4</maxWeakCount>
      <stageThreshold>-2.9631710052490234e-01</stageThreshold>
      <weakClassifiers>
        <_>
          <internalNodes>
            0 -1 95 1.7327174544334412e-02</internalNodes>
          <leafValues>
            -6.1904764175415039e-01 7.8378379344940186e-01</leafValues></_>
        <_>
          <internalNodes>
            0 -1 76 -2.2018931340426207e-03</internalNodes>
          <leafValues>
            -9.5592743158340454e-01 4.0521401166915894e-01</leafValues></_>
        <_>
          <internalNodes>
            0 -1 56 -4.7230585478246212e-03</internalNodes>
          <leafValues>
            8.3666634559631348e-01 -5.0851792097091675e-01</leafValues></_>
        <_>
          <internalNodes>
            0 -1 25 -1.7506759613752365e-03</internalNodes>
          <leafValues>
            -9.0017169713973999e-01 4.4199156761169434e-01</leafValues></_></weakClassifiers></_>
    <!-- stage 23 -->
    <_>
      <maxWeakCount>3</maxWeakCount>
      <stageThreshold>-7.4904316663742065e-01</stageThreshold>
      <weakClassifiers>
        <_>
          <internalNodes>
            0 -1 94 3.1920477340463549e-05</internalNodes>
          <leafValues>
            -8.8073396682739258e-01 8.3516484498977661e-01</leafValues></_>
        <_>
          <internalNodes>
            0 -1 73 3.3280119532719254e-04</internalNodes>
          <leafValues>
            -7.0562666654586792e-01 1.</leafValues></_>
        <_>
          <internalNodes>
            0 -1 32 4.1445699753239751e-04</internalNodes>
          <leafValues>
            8.3731740713119507e-01 -8.1697309017181396e-01</leafValues></_></weakClassifiers></_>
    <!-- stage 24 -->
    <_>
      <maxWeakCount>1</maxWeakCount>
      <stageThreshold>1.</stageThreshold>
      <weakClassifiers>
        <_>
          <internalNodes>
            0 -1 34 1.4625956118106842e-01</internalNodes>
          <leafValues>
            1. -1.</leafValues></_></weakClassifiers></_></stages>
  <features>
    <_>
      <rects>
        <_>
          0 0 1 22 -1.</_>
        <_>
          0 11 1 11 2.</_></rects>
      <tilted>0</tilted></_>
    <_>
      <rects>
        <_>
          0 0 2 3 -1.</_>
        <_>
          0 1 2 1 2.</_></rects>
      <tilted>0</tilted></_>
    <_>
      <rects>
        <_>
          0 0 6 1 -1.</_>
        <_>
          3 0 3 1 2.</_></rects>
      <tilted>0</tilted></_>
    <_>
      <rects>
        <_>
          0 0 10 1 -1.</_>
        <_>
          5 0 5 1 2.</_></rects>
      <tilted>0</tilted></_>
    <_>
      <rects>
        <_>
          0 0 10 2 -1.</_>
        <_>
          5 0 5 2 2.</_></rects>
      <tilted>0</tilted></_>
    <_>
      <rects>
        <_>
          0 0 16 18 -1.</_>
        <_>
          0 0 8 9 2.</_>
        <_>
          8 9 8 9 2.</_></rects>
      <tilted>0</tilted></_>
    <_>
      <rects>
        <_>
          0 1 4 7 -1.</_>
        <_>
          2 1 2 7 2.</_></rects>
      <tilted>0</tilted></_>
    <_>
      <rects>
        <_>
          0 1 4 18 -1.</_>
        <_>
          0 1 2 9 2.</_>
        <_>
          2 10 2 9 2.</_></rects>
      <tilted>0</tilted></_>
    <_>
      <rects>
        <_>
          0 2 6 22 -1.</_>
        <_>
          0 2 3 11 2.</_>
        <_>
          3 13 3 11 2.</_></rects>
      <tilted>0</tilted></_>
    <_>
      <rects>
        <_>
          0 4 4 6 -1.</_>
        <_>
          0 7 4 3 2.</_></rects>
      <tilted>0</tilted></_>
    <_>
      <rects>
        <_>
          0 7 2 16 -1.</_>
        <_>
          0 15 2 8 2.</_></rects>
      <tilted>0</tilted></_>
    <_>
      <rects>
        <_>
          0 7 10 4 -1.</_>
        <_>
          0 9 10 2 2.</_></rects>
      <tilted>0</tilted></_>
    <_>
      <rects>
        <_>
          0 10 8 12 -1.</_>
        <_>
          0 10 4 6 2.</_>
        <_>
          4 16 4 6 2.</_></rects>
      <tilted>0</tilted></_>
    <_>
      <rects>
        <_>
          0 11 6 11 -1.</_>
        <_>
          3 11 3 11 2.</_></rects>
      <tilted>0</tilted></_>
    <_>
      <rects>
        <_>
          0 11 13 4 -1.</_>
        <_>
          0 13 13 2 2.</_></rects>
      <tilted>0</tilted></_>
    <_>
      <rects>
        <_>
          0 14 6 10 -1.</_>
        <_>
          3 14 3 10 2.</_></rects>
      <tilted>0</tilted></_>
    <_>
      <rects>
        <_>
          0 17 12 3 -1.</_>
        <_>
          6 17 6 3 2.</_></rects>
      <tilted>0</tilted></_>
    <_>
      <rects>
        <_>
          0 18 6 5 -1.</_>
        <_>
          3 18 3 5 2.</_></rects>
      <tilted>0</tilted></_>
    <_>
      <rects>
        <_>
          0 20 6 3 -1.</_>
        <_>
          3 20 3 3 2.</_></rects>
      <tilted>0</tilted></_>
    <_>
      <rects>
        <_>
          0 20 8 3 -1.</_>
        <_>
          4 20 4 3 2.</_></rects>
      <tilted>0</tilted></_>
    <_>
      <rects>
        <_>
          1 4 18 12 -1.</_>
        <_>
          1 10 18 6 2.</_></rects>
      <tilted>0</tilted></_>
    <_>
      <rects>
        <_>
          2 2 4 16 -1.</_>
        <_>
          2 2 2 8 2.</_>
        <_>
          4 10 2 8 2.</_></rects>
      <tilted>0</tilted></_>
    <_>
      <rects>
        <_>
          2 4 5 2 -1.</_>
        <_>
          2 5 5 1 2.</_></rects>
      <tilted>0</tilted></_>
    <_>
      <rects>
        <_>
          2 21 8 2 -1.</_>
        <_>
          2 22 8 1 2.</_></rects>
      <tilted>0</tilted></_>
    <_>
      <rects>
        <_>
          3 0 18 8 -1.</_>
        <_>
          3 4 18 4 2.</_></rects>
      <tilted>0</tilted></_>
    <_>
      <rects>
        <_>
          3 16 4 2 -1.</_>
        <_>
          3 17 4 1 2.</_></rects>
      <tilted>0</tilted></_>
    <_>
      <rects>
        <_>
          4 0 8 20 -1.</_>
        <_>
          4 0 4 10 2.</_>
        <_>
          8 10 4 10 2.</_></rects>
      <tilted>0</tilted></_>
    <_>
      <rects>
        <_>
          4 3 15 5 -1.</_>
        <_>
          9 3 5 5 2.</_></rects>
      <tilted>0</tilted></_>
    <_>
      <rects>
        <_>
          4 4 17 15 -1.</_>
        <_>
          4 9 17 5 2.</_></rects>
      <tilted>0</tilted></_>
    <_>
      <rects>
        <_>
          4 4 19 15 -1.</_>
        <_>
          4 9 19 5 2.</_></rects>
      <tilted>0</tilted></_>
    <_>
      <rects>
        <_>
          4 7 15 4 -1.</_>
        <_>
          4 9 15 2 2.</_></rects>
      <tilted>0</tilted></_>
    <_>
      <rects>
        <_>
          4 8 2 2 -1.</_>
        <_>
          4 9 2 1 2.</_></rects>
      <tilted>0</tilted></_>
    <_>
      <rects>
        <_>
          4 10 1 2 -1.</_>
        <_>
          4 11 1 1 2.</_></rects>
      <tilted>0</tilted></_>
    <_>
      <rects>
        <_>
          4 13 2 2 -1.</_>
        <_>
          4 14 2 1 2.</_></rects>
      <tilted>0</tilted></_>
    <_>
      <rects>
        <_>
          5 3 16 20 -1.</_>
        <_>
          5 3 8 10 2.</_>
        <_>
          13 13 8 10 2.</_></rects>
      <tilted>0</tilted></_>
    <_>
      <rects>
        <_>
          5 4 2 2 -1.</_>
        <_>
          5 5 2 1 2.</_></rects>
      <tilted>0</tilted></_>
    <_>
      <rects>
        <_>
          5 7 8 1 -1.</_>
        <_>
          9 7 4 1 2.</_></rects>
      <tilted>0</tilted></_>
    <_>
      <rects>
        <_>
          5 7 12 12 -1.</_>
        <_>
          5 7 6 6 2.</_>
        <_>
          11 13 6 6 2.</_></rects>
      <tilted>0</tilted></_>
    <_>
      <rects>
        <_>
          5 9 5 14 -1.</_>
        <_>
          5 16 5 7 2.</_></rects>
      <tilted>0</tilted></_>
    <_>
      <rects>
        <_>
          6 5 4 15 -1.</_>
        <_>
          8 5 2 15 2.</_></rects>
      <tilted>0</tilted></_>
    <_>
      <rects>
        <_>
          7 3 6 5 -1.</_>
        <_>
          10 3 3 5 2.</_></rects>
      <tilted>0</tilted></_>
    <_>
      <rects>
        <_>
          7 3 6 2 -1.</_>
        <_>
          7 4 6 1 2.</_></rects>
      <tilted>0</tilted></_>
    <_>
      <rects>
        <_>
          7 18 7 4 -1.</_>
        <_>
          7 20 7 2 2.</_></rects>
      <tilted>0</tilted></_>
    <_>
      <rects>
        <_>
          8 8 3 10 -1.</_>
        <_>
          8 13 3 5 2.</_></rects>
      <tilted>0</tilted></_>
    <_>
      <rects>
        <_>
          8 8 14 4 -1.</_>
        <_>
          8 10 14 2 2.</_></rects>
      <tilted>0</tilted></_>
    <_>
      <rects>
        <_>
          9 1 2 4 -1.</_>
        <_>
          9 1 1 2 2.</_>
        <_>
          10 3 1 2 2.</_></rects>
      <tilted>0</tilted></_>
    <_>
      <rects>
        <_>
          9 1 12 16 -1.</_>
        <_>
          9 1 6 8 2.</_>
        <_>
          15 9 6 8 2.</_></rects>
      <tilted>0</tilted></_>
    <_>
      <rects>
        <_>
          10 0 2 8 -1.</_>
        <_>
          10 0 1 4 2.</_>
        <_>
          11 4 1 4 2.</_></rects>
      <tilted>0</tilted></_>
    <_>
      <rects>
        <_>
          10 0 7 12 -1.</_>
        <_>
          10 6 7 6 2.</_></rects>
      <tilted>0</tilted></_>
    <_>
      <rects>
        <_>
          10 2 9 6 -1.</_>
        <_>
          10 5 9 3 2.</_></rects>
      <tilted>0</tilted></_>
    <_>
      <rects>
        <_>
          10 5 2 18 -1.</_>
        <_>
          10 5 1 9 2.</_>
        <_>
          11 14 1 9 2.</_></rects>
      <tilted>0</tilted></_>
    <_>
      <rects>
        <_>
          10 6 2 8 -1.</_>
        <_>
          11 6 1 8 2.</_></rects>
      <tilted>0</tilted></_>
    <_>
      <rects>
        <_>
          10 8 2 2 -1.</_>
        <_>
          10 9 2 1 2.</_></rects>
      <tilted>0</tilted></_>
    <_>
      <rects>
        <_>
          11 0 2 1 -1.</_>
        <_>
          12 0 1 1 2.</_></rects>
      <tilted>0</tilted></_>
    <_>
      <rects>
        <_>
          11 3 4 10 -1.</_>
        <_>
          13 3 2 10 2.</_></rects>
      <tilted>0</tilted></_>
    <_>
      <rects>
        <_>
          11 3 6 6 -1.</_>
        <_>
          14 3 3 6 2.</_></rects>
      <tilted>0</tilted></_>
    <_>
      <rects>
        <_>
          11 4 2 16 -1.</_>
        <_>
          12 4 1 16 2.</_></rects>
      <tilted>0</tilted></_>
    <_>
      <rects>
        <_>
          11 4 4 9 -1.</_>
        <_>
          13 4 2 9 2.</_></rects>
      <tilted>0</tilted></_>
    <_>
      <rects>
        <_>
          11 6 2 3 -1.</_>
        <_>
          12 6 1 3 2.</_></rects>
      <tilted>0</tilted></_>
    <_>
      <rects>
        <_>
          11 6 6 3 -1.</_>
        <_>
          14 6 3 3 2.</_></rects>
      <tilted>0</tilted></_>
    <_>
      <rects>
        <_>
          11 7 7 2 -1.</_>
        <_>
          11 8 7 1 2.</_></rects>
      <tilted>0</tilted></_>
    <_>
      <rects>
        <_>
          12 0 12 1 -1.</_>
        <_>
          18 0 6 1 2.</_></rects>
      <tilted>0</tilted></_>
    <_>
      <rects>
        <_>
          12 0 12 2 -1.</_>
        <_>
          18 0 6 2 2.</_></rects>
      <tilted>0</tilted></_>
    <_>
      <rects>
        <_>
          12 23 12 1 -1.</_>
        <_>
          18 23 6 1 2.</_></rects>
      <tilted>0</tilted></_>
    <_>
      <rects>
        <_>
          13 8 6 10 -1.</_>
        <_>
          16 8 3 10 2.</_></rects>
      <tilted>0</tilted></_>
    <_>
      <rects>
        <_>
          13 12 6 12 -1.</_>
        <_>
          13 12 3 6 2.</_>
        <_>
          16 18 3 6 2.</_></rects>
      <tilted>0</tilted></_>
    <_>
      <rects>
        <_>
          14 0 10 1 -1.</_>
        <_>
          19 0 5 1 2.</_></rects>
      <tilted>0</tilted></_>
    <_>
      <rects>
        <_>
          14 0 10 2 -1.</_>
        <_>
          19 0 5 2 2.</_></rects>
      <tilted>0</tilted></_>
    <_>
      <rects>
        <_>
          14 10 4 4 -1.</_>
        <_>
          16 10 2 4 2.</_></rects>
      <tilted>0</tilted></_>
    <_>
      <rects>
        <_>
          15 0 4 2 -1.</_>
        <_>
          15 0 2 1 2.</_>
        <_>
          17 1 2 1 2.</_></rects>
      <tilted>0</tilted></_>
    <_>
      <rects>
        <_>
          15 21 4 2 -1.</_>
        <_>
          15 22 4 1 2.</_></rects>
      <tilted>0</tilted></_>
    <_>
      <rects>
        <_>
          15 22 6 2 -1.</_>
        <_>
          15 23 6 1 2.</_></rects>
      <tilted>0</tilted></_>
    <_>
      <rects>
        <_>
          16 4 8 8 -1.</_>
        <_>
          16 8 8 4 2.</_></rects>
      <tilted>0</tilted></_>
    <_>
      <rects>
        <_>
          16 6 6 2 -1.</_>
        <_>
          16 6 3 1 2.</_>
        <_>
          19 7 3 1 2.</_></rects>
      <tilted>0</tilted></_>
    <_>
      <rects>
        <_>
          16 7 2 2 -1.</_>
        <_>
          16 8 2 1 2.</_></rects>
      <tilted>0</tilted></_>
    <_>
      <rects>
        <_>
          16 20 8 1 -1.</_>
        <_>
          20 20 4 1 2.</_></rects>
      <tilted>0</tilted></_>
    <_>
      <rects>
        <_>
          17 0 2 2 -1.</_>
        <_>
          18 0 1 2 2.</_></rects>
      <tilted>0</tilted></_>
    <_>
      <rects>
        <_>
          17 0 4 1 -1.</_>
        <_>
          19 0 2 1 2.</_></rects>
      <tilted>0</tilted></_>
    <_>
      <rects>
        <_>
          17 16 2 2 -1.</_>
        <_>
          17 17 2 1 2.</_></rects>
      <tilted>0</tilted></_>
    <_>
      <rects>
        <_>
          17 18 6 6 -1.</_>
        <_>
          17 18 3 3 2.</_>
        <_>
          20 21 3 3 2.</_></rects>
      <tilted>0</tilted></_>
    <_>
      <rects>
        <_>
          18 6 2 3 -1.</_>
        <_>
          19 6 1 3 2.</_></rects>
      <tilted>0</tilted></_>
    <_>
      <rects>
        <_>
          18 6 2 6 -1.</_>
        <_>
          18 6 1 3 2.</_>
        <_>
          19 9 1 3 2.</_></rects>
      <tilted>0</tilted></_>
    <_>
      <rects>
        <_>
          18 6 6 18 -1.</_>
        <_>
          18 6 3 9 2.</_>
        <_>
          21 15 3 9 2.</_></rects>
      <tilted>0</tilted></_>
    <_>
      <rects>
        <_>
          18 11 6 13 -1.</_>
        <_>
          21 11 3 13 2.</_></rects>
      <tilted>0</tilted></_>
    <_>
      <rects>
        <_>
          18 16 6 7 -1.</_>
        <_>
          21 16 3 7 2.</_></rects>
      <tilted>0</tilted></_>
    <_>
      <rects>
        <_>
          18 17 6 7 -1.</_>
        <_>
          21 17 3 7 2.</_></rects>
      <tilted>0</tilted></_>
    <_>
      <rects>
        <_>
          18 21 6 3 -1.</_>
        <_>
          21 21 3 3 2.</_></rects>
      <tilted>0</tilted></_>
    <_>
      <rects>
        <_>
          19 8 1 2 -1.</_>
        <_>
          19 9 1 1 2.</_></rects>
      <tilted>0</tilted></_>
    <_>
      <rects>
        <_>
          19 11 1 6 -1.</_>
        <_>
          19 14 1 3 2.</_></rects>
      <tilted>0</tilted></_>
    <_>
      <rects>
        <_>
          20 0 4 10 -1.</_>
        <_>
          22 0 2 10 2.</_></rects>
      <tilted>0</tilted></_>
    <_>
      <rects>
        <_>
          20 1 4 9 -1.</_>
        <_>
          22 1 2 9 2.</_></rects>
      <tilted>0</tilted></_>
    <_>
      <rects>
        <_>
          20 1 4 12 -1.</_>
        <_>
          22 1 2 12 2.</_></rects>
      <tilted>0</tilted></_>
    <_>
      <rects>
        <_>
          21 10 3 12 -1.</_>
        <_>
          21 16 3 6 2.</_></rects>
      <tilted>0</tilted></_>
    <_>
      <rects>
        <_>
          22 0 2 3 -1.</_>
        <_>
          22 1 2 1 2.</_></rects>
      <tilted>0</tilted></_>
    <_>
      <rects>
        <_>
          22 5 2 4 -1.</_>
        <_>
          22 7 2 2 2.</_></rects>
      <tilted>0</tilted></_>
    <_>
      <rects>
        <_>
          22 11 2 10 -1.</_>
        <_>
          22 16 2 5 2.</_></rects>
      <tilted>0</tilted></_>
    <_>
      <rects>
        <_>
          23 0 1 3 -1.</_>
        <_>
          23 1 1 1 2.</_></rects>
      <tilted>0</tilted></_>
    <_>
      <rects>
        <_>
          23 0 1 24 -1.</_>
        <_>
          23 12 1 12 2.</_></rects>
      <tilted>0</tilted></_>
    <_>
      <rects>
        <_>
          23 1 1 3 -1.</_>
        <_>
          23 2 1 1 2.</_></rects>
      <tilted>0</tilted></_>
    <_>
      <rects>
        <_>
          23 4 1 20 -1.</_>
        <_>
          23 14 1 10 2.</_></rects>
      <tilted>0</tilted></_></features></cascade>
</opencv_storage>
